<?xml version="1.0" encoding="ISO-8859-1"?>
<!-- This file was created by ACADEMIC version of SMILE -->
<smile version="1.0" id="Unnamed" numsamples="10000" discsamples="10000">
	<nodes>
		<cpt id="att_1">
			<state id="S0" />
			<state id="S1" />
			<probabilities>0.7887160735438018 0.2112839264561982</probabilities>
		</cpt>
		<cpt id="att_6">
			<state id="S0" />
			<state id="S1" />
			<parents>att_1</parents>
			<probabilities>0.8640222004570682 0.1359777995429318 0.2789422373872776 0.7210577626127224</probabilities>
		</cpt>
		<cpt id="att_2">
			<state id="S0" />
			<state id="S1" />
			<parents>att_1 att_6</parents>
			<probabilities>0.9223532078893675 0.07764679211063251 0.6161785885741718 0.3838214114258281 0.659825327510917 0.340174672489083 0.2380871916187901 0.7619128083812098</probabilities>
		</cpt>
		<cpt id="att_7">
			<state id="S0" />
			<state id="S1" />
			<parents>att_1 att_2 att_6</parents>
			<probabilities>0.8587989513354087 0.1412010486645912 0.2091121495327103 0.7908878504672897 0.6882295719844358 0.3117704280155642 0.133125 0.8668750000000001 0.6924603174603174 0.3075396825396825 0.1056737588652482 0.8943262411347518 0.5833333333333334 0.4166666666666667 0.05831485587583148 0.9416851441241685</probabilities>
		</cpt>
		<cpt id="att_9">
			<state id="S0" />
			<state id="S1" />
			<parents>att_1 att_2 att_6 att_7</parents>
			<probabilities>0.5352952399122389 0.4647047600877612 0.04263341067285382 0.9573665893271461 0.08736059479553902 0.912639405204461 0.01033464566929134 0.9896653543307087 0.3255649717514124 0.6744350282485876 0.06697819314641744 0.9330218068535825 0.1355140186915888 0.8644859813084111 0.02089337175792507 0.9791066282420748 0.2967557251908397 0.7032442748091603 0.03218884120171674 0.9678111587982833 0.06 0.9400000000000001 0.01188589540412044 0.9881141045958796 0.3135964912280702 0.6864035087719298 0.05828220858895706 0.9417177914110429 0.1477272727272727 0.8522727272727273 0.01294726930320151 0.9870527306967984</probabilities>
		</cpt>
		<cpt id="att_11">
			<state id="S0" />
			<state id="S1" />
			<parents>att_1 att_6 att_7 att_9</parents>
			<probabilities>0.8693084560082163 0.1306915439917836 0.6293699756963919 0.3706300243036081 0.7947368421052632 0.2052631578947368 0.452051282051282 0.5479487179487179 0.6973684210526315 0.3026315789473684 0.4334319526627219 0.5665680473372781 0.7000000000000001 0.3 0.2489614243323442 0.7510385756676558 0.6101321585903084 0.3898678414096917 0.480952380952381 0.5190476190476191 0.5 0.5 0.341688654353562 0.658311345646438 0.5625 0.4375 0.3087431693989071 0.6912568306010929 0.5285714285714286 0.4714285714285714 0.1012867647058824 0.8987132352941176</probabilities>
		</cpt>
		<cpt id="att_12">
			<state id="S0" />
			<state id="S1" />
			<parents>att_1 att_6 att_7 att_9 att_11</parents>
			<probabilities>0.9876944280370151 0.01230557196298484 0.9155759162303665 0.08442408376963351 0.9680724680724681 0.03192753192753193 0.8388804841149774 0.1611195158850227 0.9407894736842105 0.05921052631578947 0.8250000000000001 0.175 0.9529478458049887 0.04705215419501134 0.7684752104770813 0.2315247895229186 0.9444444444444444 0.05555555555555555 0.7916666666666666 0.2083333333333333 0.9217687074829931 0.07823129251700681 0.6953125 0.3046875 0.9722222222222222 0.02777777777777778 0.4375 0.5625 0.8940476190476191 0.105952380952381 0.4648499210110584 0.5351500789889415 0.960431654676259 0.03956834532374101 0.6123595505617977 0.3876404494382023 0.950592885375494 0.04940711462450593 0.6465201465201466 0.3534798534798535 0.9444444444444444 0.05555555555555555 0.7222222222222222 0.2777777777777778 0.9115384615384616 0.08846153846153847 0.554 0.446 0.8214285714285714 0.1785714285714285 0.4090909090909091 0.5909090909090909 0.9912280701754386 0.008771929824561403 0.515748031496063 0.484251968503937 0.9210526315789473 0.07894736842105263 0.4411764705882353 0.5588235294117647 0.8351449275362319 0.1648550724637681 0.178118609406953 0.8218813905930471</probabilities>
		</cpt>
		<cpt id="att_0">
			<state id="S0" />
			<state id="S1" />
			<parents>att_1 att_2 att_6 att_12</parents>
			<probabilities>0.974738219895288 0.02526178010471204 0.963186077643909 0.03681392235609103 0.904332129963899 0.09566787003610108 0.8843612334801763 0.1156387665198238 0.8603020496224379 0.139697950377562 0.7696078431372549 0.2303921568627451 0.643640350877193 0.356359649122807 0.5231884057971015 0.4768115942028985 0.9151260504201681 0.08487394957983194 0.8796296296296295 0.1203703703703704 0.7784313725490196 0.2215686274509804 0.7660753880266076 0.2339246119733925 0.6803571428571429 0.3196428571428571 0.5900900900900901 0.4099099099099099 0.4851398601398602 0.5148601398601399 0.2633610451306413 0.7366389548693587</probabilities>
		</cpt>
		<cpt id="att_5">
			<state id="S0" />
			<state id="S1" />
			<parents>att_2 att_6 att_7 att_9 att_11</parents>
			<probabilities>0.9341658341658342 0.06583416583416583 0.8237221494102228 0.1762778505897772 0.7074840279890477 0.2925159720109523 0.5519447287615149 0.4480552712384852 0.5080645161290323 0.4919354838709677 0.375 0.625 0.3551682692307693 0.6448317307692308 0.2272727272727273 0.7727272727272727 0.3863636363636364 0.6136363636363636 0.07142857142857142 0.9285714285714285 0.2992424242424243 0.7007575757575758 0.245945945945946 0.7540540540540541 0.375 0.625 0.07142857142857142 0.9285714285714285 0.1435185185185185 0.8564814814814814 0.06699846860643185 0.9330015313935682 0.4577464788732394 0.5422535211267606 0.4944444444444445 0.5055555555555555 0.3138138138138138 0.6861861861861862 0.2268211920529801 0.7731788079470199 0.4130434782608696 0.5869565217391304 0.05555555555555555 0.9444444444444444 0.1583333333333333 0.8416666666666667 0.09671532846715328 0.9032846715328466 0.1842105263157895 0.8157894736842105 0.21875 0.78125 0.1875 0.8125 0.1007462686567164 0.8992537313432836 0.02 0.98 0.02777777777777778 0.9722222222222222 0.03629032258064516 0.9637096774193549 0.01933471933471934 0.9806652806652807</probabilities>
		</cpt>
		<cpt id="att_10">
			<state id="S0" />
			<state id="S1" />
			<parents>att_5 att_6 att_9 att_11 att_12</parents>
			<probabilities>0.9839082877576778 0.01609171224232226 0.8916666666666666 0.1083333333333333 0.8075000000000001 0.1925 0.3765432098765432 0.6234567901234568 0.949378998870907 0.05062100112909296 0.788659793814433 0.211340206185567 0.761511728931364 0.238488271068636 0.4096153846153847 0.5903846153846154 0.90625 0.09375 0.5 0.5 0.875 0.125 0.5 0.5 0.9563106796116504 0.04368932038834951 0.8500000000000001 0.15 0.7388888888888889 0.2611111111111111 0.2378640776699029 0.762135922330097 0.9485294117647058 0.05147058823529412 0.9615384615384616 0.03846153846153846 0.771186440677966 0.2288135593220339 0.4375 0.5625 0.917591564927858 0.08240843507214207 0.7302631578947368 0.2697368421052632 0.6788963007883566 0.3211036992116434 0.3252427184466019 0.674757281553398 0.9375 0.0625 0.9 0.1 0.5476190476190476 0.4523809523809523 0.2045454545454546 0.7954545454545455 0.8870503597122302 0.1129496402877698 0.6467391304347826 0.3532608695652174 0.6262135922330098 0.3737864077669903 0.1825073964497042 0.8174926035502958</probabilities>
		</cpt>
		<cpt id="att_4">
			<state id="S0" />
			<state id="S1" />
			<parents>att_5 att_7 att_9 att_10 att_11</parents>
			<probabilities>0.841237771161208 0.158762228838792 0.5791015625 0.4208984375 0.427710843373494 0.572289156626506 0.4757575757575758 0.5242424242424243 0.6225010633772863 0.3774989366227138 0.3873403019744483 0.6126596980255516 0.3674242424242424 0.6325757575757576 0.2333333333333333 0.7666666666666667 0.4886363636363636 0.5113636363636364 0.2142857142857143 0.7857142857142857 0.25 0.75 0.25 0.75 0.5647887323943662 0.4352112676056338 0.2746478873239437 0.7253521126760564 0.396551724137931 0.603448275862069 0.2243243243243243 0.7756756756756757 0.5200445434298441 0.4799554565701559 0.4021739130434783 0.5978260869565217 0.22 0.78 0.1721311475409836 0.8278688524590164 0.4094583670169765 0.5905416329830234 0.2660493827160494 0.7339506172839506 0.2067307692307692 0.7932692307692308 0.1064400715563506 0.8935599284436494 0.5902777777777778 0.4097222222222222 0.34 0.66 0.125 0.875 0.125 0.875 0.3314459930313589 0.6685540069686411 0.1431547619047619 0.8568452380952382 0.1051136363636364 0.8948863636363636 0.07300135501355014 0.9269986449864499</probabilities>
		</cpt>
		<cpt id="att_13">
			<state id="S0" />
			<state id="S1" />
			<parents>att_4 att_7 att_10 att_11 att_12</parents>
			<probabilities>0.9877184305967689 0.01228156940323112 0.9193548387096775 0.08064516129032259 0.938188494492044 0.06181150550795593 0.7559523809523809 0.244047619047619 0.9020618556701031 0.09793814432989691 0.6785714285714285 0.3214285714285714 0.7172131147540984 0.2827868852459017 0.1635514018691589 0.836448598130841 0.964696223316913 0.03530377668308703 0.8472222222222222 0.1527777777777778 0.9021739130434783 0.09782608695652174 0.6645569620253164 0.3354430379746836 0.7608695652173912 0.2391304347826087 0.6875 0.3125 0.5948275862068966 0.4051724137931034 0.1905940594059406 0.8094059405940595 0.5588118022328549 0.4411881977671451 0.4236111111111111 0.5763888888888888 0.4399844115354637 0.5600155884645363 0.3978102189781022 0.6021897810218978 0.3485576923076923 0.6514423076923077 0.3 0.7000000000000001 0.2333333333333333 0.7666666666666667 0.07753164556962025 0.9224683544303798 0.5049778761061947 0.4950221238938053 0.3357142857142857 0.6642857142857143 0.3538961038961039 0.6461038961038961 0.2221189591078067 0.7778810408921932 0.1840277777777778 0.8159722222222222 0.1805555555555556 0.8194444444444444 0.1311349693251534 0.8688650306748467 0.03938584779706275 0.9606141522029372</probabilities>
		</cpt>
		<cpt id="att_14">
			<state id="S0" />
			<state id="S1" />
			<parents>att_7 att_10 att_11 att_12 att_13</parents>
			<probabilities>0.9874881644799134 0.01251183552008657 0.7142252328535139 0.285774767146486 0.9094827586206896 0.09051724137931035 0.6428571428571428 0.3571428571428571 0.9560480841472577 0.0439519158527423 0.6144343302990898 0.3855656697009103 0.826271186440678 0.173728813559322 0.4029126213592233 0.5970873786407767 0.9031250000000001 0.096875 0.6517241379310345 0.3482758620689655 0.7941176470588235 0.2058823529411765 0.4318181818181818 0.5681818181818182 0.9040178571428571 0.09598214285714285 0.4958592132505176 0.5041407867494825 0.6785714285714285 0.3214285714285714 0.1456692913385827 0.8543307086614174 0.9774904214559387 0.0225095785440613 0.5831556503198294 0.4168443496801706 0.9166666666666666 0.08333333333333333 0.4134615384615385 0.5865384615384616 0.9193548387096774 0.08064516129032258 0.4666203059805285 0.5333796940194715 0.8401162790697674 0.1598837209302326 0.2550561797752809 0.7449438202247192 0.8522727272727273 0.1477272727272727 0.467479674796748 0.5325203252032521 0.7083333333333333 0.2916666666666666 0.171875 0.828125 0.8541666666666666 0.1458333333333333 0.3279661016949152 0.6720338983050848 0.5551181102362205 0.4448818897637795 0.05663221360895779 0.9433677863910422</probabilities>
		</cpt>
		<cpt id="att_8">
			<state id="S0" />
			<state id="S1" />
			<parents>att_6 att_7 att_9 att_12 att_14</parents>
			<probabilities>0.9999115357395613 8.846426043878273e-05 0.9980158730158729 0.001984126984126984 0.9947916666666666 0.005208333333333333 0.9929577464788732 0.007042253521126761 0.9779653584740189 0.02203464152598114 0.9621309370988446 0.03786906290115533 0.9472573839662446 0.05274261603375527 0.9013377926421404 0.09866220735785954 0.9942528735632183 0.005747126436781609 0.90625 0.09375 0.9375 0.0625 0.8333333333333333 0.1666666666666667 0.8504023408924652 0.1495976591075348 0.7690217391304348 0.2309782608695652 0.6904761904761905 0.3095238095238095 0.5679245283018868 0.4320754716981132 0.9888888888888889 0.01111111111111111 0.9166666666666666 0.08333333333333333 0.9 0.1 0.9375 0.0625 0.8669871794871794 0.1330128205128205 0.7658227848101266 0.2341772151898734 0.7444444444444445 0.2555555555555556 0.5574712643678161 0.4425287356321839 0.9166666666666666 0.08333333333333333 0.875 0.125 0.7857142857142857 0.2142857142857143 0.7222222222222222 0.2777777777777778 0.4591932457786116 0.5408067542213884 0.2668439716312057 0.7331560283687943 0.2519582245430809 0.7480417754569191 0.0879281537176274 0.9120718462823726</probabilities>
		</cpt>
		<cpt id="att_3">
			<state id="S0" />
			<state id="S1" />
			<parents>att_4 att_5 att_8 att_9</parents>
			<probabilities>0.931958057898336 0.068041942101664 0.7863187588152327 0.2136812411847673 0.5 0.5 0.7385321100917431 0.2614678899082569 0.3084507042253521 0.691549295774648 0.320215410107705 0.679784589892295 0.25 0.75 0.5 0.5 0.7811942959001782 0.2188057040998217 0.6129268292682927 0.3870731707317073 0.1666666666666667 0.8333333333333333 0.4337016574585635 0.5662983425414364 0.241822429906542 0.7581775700934579 0.1631578947368421 0.8368421052631579 0.3 0.7000000000000001 0.1095674591807505 0.8904325408192495</probabilities>
		</cpt>
		<cpt id="att_15">
			<state id="S0" />
			<state id="S1" />
			<parents>att_0 att_6 att_10 att_12 att_14</parents>
			<probabilities>0.9962913014160486 0.00370869858395145 0.9936647173489278 0.006335282651072124 0.9575471698113208 0.04245283018867925 0.9413793103448276 0.05862068965517241 0.9844139650872817 0.0155860349127182 0.9667338709677419 0.03326612903225806 0.9390243902439025 0.06097560975609757 0.6409952606635072 0.3590047393364929 0.9757109004739337 0.02428909952606635 0.9581818181818181 0.04181818181818182 0.8333333333333333 0.1666666666666667 0.6897590361445783 0.3102409638554217 0.9540540540540541 0.04594594594594595 0.8698630136986301 0.1301369863013699 0.861904761904762 0.1380952380952381 0.4906347554630593 0.5093652445369408 0.9902597402597403 0.00974025974025974 0.9716981132075472 0.02830188679245283 0.875 0.125 0.9642857142857142 0.03571428571428571 0.9318181818181819 0.06818181818181818 0.8125 0.1875 0.7727272727272727 0.2272727272727273 0.5175438596491228 0.4824561403508771 0.9477211796246648 0.05227882037533512 0.9444444444444444 0.05555555555555555 0.759090909090909 0.2409090909090909 0.3547486033519553 0.6452513966480448 0.9126984126984127 0.0873015873015873 0.7371794871794871 0.2628205128205128 0.6845238095238095 0.3154761904761905 0.2353187919463087 0.7646812080536912</probabilities>
		</cpt>
	</nodes>
	<extensions>
		<genie version="1.0" app="SMILE_ACADEMIC 1.2.1@64858e074dd1" name="Unnamed" faultnameformat="nodestate">
			<node id="att_0">
				<name>att_0</name>
				<interior color="e5f6f7" />
				<outline color="0000bb" />
				<font color="000000" name="MS Sans Serif" size="8" />
				<position>-38 -18 38 18</position>
			</node>
			<node id="att_1">
				<name>att_1</name>
				<interior color="e5f6f7" />
				<outline color="0000bb" />
				<font color="000000" name="MS Sans Serif" size="8" />
				<position>-38 -18 38 18</position>
			</node>
			<node id="att_2">
				<name>att_2</name>
				<interior color="e5f6f7" />
				<outline color="0000bb" />
				<font color="000000" name="MS Sans Serif" size="8" />
				<position>-38 -18 38 18</position>
			</node>
			<node id="att_3">
				<name>att_3</name>
				<interior color="e5f6f7" />
				<outline color="0000bb" />
				<font color="000000" name="MS Sans Serif" size="8" />
				<position>-38 -18 38 18</position>
			</node>
			<node id="att_4">
				<name>att_4</name>
				<interior color="e5f6f7" />
				<outline color="0000bb" />
				<font color="000000" name="MS Sans Serif" size="8" />
				<position>-38 -18 38 18</position>
			</node>
			<node id="att_5">
				<name>att_5</name>
				<interior color="e5f6f7" />
				<outline color="0000bb" />
				<font color="000000" name="MS Sans Serif" size="8" />
				<position>-38 -18 38 18</position>
			</node>
			<node id="att_6">
				<name>att_6</name>
				<interior color="e5f6f7" />
				<outline color="0000bb" />
				<font color="000000" name="MS Sans Serif" size="8" />
				<position>-38 -18 38 18</position>
			</node>
			<node id="att_7">
				<name>att_7</name>
				<interior color="e5f6f7" />
				<outline color="0000bb" />
				<font color="000000" name="MS Sans Serif" size="8" />
				<position>-38 -18 38 18</position>
			</node>
			<node id="att_8">
				<name>att_8</name>
				<interior color="e5f6f7" />
				<outline color="0000bb" />
				<font color="000000" name="MS Sans Serif" size="8" />
				<position>-38 -18 38 18</position>
			</node>
			<node id="att_9">
				<name>att_9</name>
				<interior color="e5f6f7" />
				<outline color="0000bb" />
				<font color="000000" name="MS Sans Serif" size="8" />
				<position>-38 -18 38 18</position>
			</node>
			<node id="att_10">
				<name>att_10</name>
				<interior color="e5f6f7" />
				<outline color="0000bb" />
				<font color="000000" name="MS Sans Serif" size="8" />
				<position>-38 -18 38 18</position>
			</node>
			<node id="att_11">
				<name>att_11</name>
				<interior color="e5f6f7" />
				<outline color="0000bb" />
				<font color="000000" name="MS Sans Serif" size="8" />
				<position>-38 -18 38 18</position>
			</node>
			<node id="att_12">
				<name>att_12</name>
				<interior color="e5f6f7" />
				<outline color="0000bb" />
				<font color="000000" name="MS Sans Serif" size="8" />
				<position>-38 -18 38 18</position>
			</node>
			<node id="att_13">
				<name>att_13</name>
				<interior color="e5f6f7" />
				<outline color="0000bb" />
				<font color="000000" name="MS Sans Serif" size="8" />
				<position>-38 -18 38 18</position>
			</node>
			<node id="att_14">
				<name>att_14</name>
				<interior color="e5f6f7" />
				<outline color="0000bb" />
				<font color="000000" name="MS Sans Serif" size="8" />
				<position>-38 -18 38 18</position>
			</node>
			<node id="att_15">
				<name>att_15</name>
				<interior color="e5f6f7" />
				<outline color="0000bb" />
				<font color="000000" name="MS Sans Serif" size="8" />
				<position>-38 -18 38 18</position>
			</node>
		</genie>
	</extensions>
</smile>
