<?xml version="1.0" encoding="ISO-8859-1"?>
<!-- This file was created by ACADEMIC version of SMILE -->
<smile version="1.0" id="Unnamed" numsamples="10000" discsamples="10000">
	<nodes>
		<cpt id="att_3">
			<state id="S0" />
			<state id="S1" />
			<probabilities>0.5061801514137096 0.4938198485862904</probabilities>
		</cpt>
		<cpt id="att_11">
			<state id="S0" />
			<state id="S1" />
			<parents>att_3</parents>
			<probabilities>0.7435649608301964 0.2564350391698036 0.3743351757221817 0.6256648242778183</probabilities>
		</cpt>
		<cpt id="att_5">
			<state id="S0" />
			<state id="S1" />
			<parents>att_3 att_11</parents>
			<probabilities>0.8956765631413326 0.1043234368586674 0.5967869892899643 0.4032130107100357 0.3188022284122563 0.6811977715877438 0.12975 0.87025</probabilities>
		</cpt>
		<cpt id="att_13">
			<state id="S0" />
			<state id="S1" />
			<parents>att_3 att_5 att_11</parents>
			<probabilities>0.8966702306399877 0.1033297693600122 0.56578073089701 0.4342192691029901 0.7254259501965924 0.2745740498034076 0.2944936086529007 0.7055063913470994 0.7532751091703057 0.2467248908296943 0.4666238767650834 0.5333761232349166 0.6326655764513491 0.3673344235486509 0.2302757564151666 0.7697242435848334</probabilities>
		</cpt>
		<cpt id="att_14">
			<state id="S0" />
			<state id="S1" />
			<parents>att_5 att_11 att_13</parents>
			<probabilities>0.9849249962869449 0.0150750037130551 0.7116788321167883 0.2883211678832117 0.9337448559670781 0.06625514403292181 0.4653882132834425 0.5346117867165575 0.9735840076154212 0.02641599238457877 0.5879963898916968 0.4120036101083033 0.8804926764314248 0.1195073235685752 0.2285201604390965 0.7714798395609035</probabilities>
		</cpt>
		<cpt id="att_12">
			<state id="S0" />
			<state id="S1" />
			<parents>att_5 att_11 att_14</parents>
			<probabilities>0.9812004375170905 0.01879956248290949 0.9272486772486772 0.07275132275132275 0.9016544117647058 0.09834558823529412 0.5682515337423313 0.4317484662576687 0.9612532443455691 0.03874675565443084 0.8466796875 0.1533203125 0.7839916839916841 0.216008316008316 0.2846896191966614 0.7153103808033385</probabilities>
		</cpt>
		<cpt id="att_4">
			<state id="S0" />
			<state id="S1" />
			<parents>att_3 att_5 att_11 att_13 att_14</parents>
			<probabilities>0.8722356599861782 0.1277643400138217 0.4464285714285714 0.5535714285714285 0.09758551307847084 0.9024144869215293 0.1077348066298343 0.8922651933701657 0.666875 0.333125 0.4811320754716981 0.5188679245283019 0.1306451612903226 0.8693548387096774 0.2623188405797102 0.7376811594202899 0.7162661737523105 0.2837338262476894 0.3928571428571428 0.6071428571428571 0.07142857142857142 0.9285714285714285 0.07051282051282051 0.9294871794871794 0.5620300751879699 0.4379699248120301 0.6142857142857142 0.3857142857142857 0.0748792270531401 0.9251207729468599 0.2509765625 0.7490234375 0.6633136094674557 0.3366863905325444 0.5 0.5 0.04545454545454545 0.9545454545454545 0.04639175257731959 0.9536082474226804 0.4776785714285714 0.5223214285714285 0.1896551724137931 0.8103448275862069 0.04497354497354497 0.955026455026455 0.1162280701754386 0.8837719298245613 0.498339973439575 0.501660026560425 0.3604651162790697 0.6395348837209303 0.04711538461538461 0.9528846153846154 0.02763157894736842 0.9723684210526315 0.3237240075614367 0.6762759924385634 0.2020547945205479 0.797945205479452 0.03249714937286203 0.967502850627138 0.02942111959287532 0.9705788804071247</probabilities>
		</cpt>
		<cpt id="att_10">
			<state id="S0" />
			<state id="S1" />
			<parents>att_4 att_11 att_12 att_13 att_14</parents>
			<probabilities>0.9858931804465902 0.01410681955340978 0.7946428571428571 0.2053571428571428 0.875 0.125 0.8333333333333333 0.1666666666666667 0.9033613445378151 0.09663865546218486 0.7083333333333333 0.2916666666666666 0.7857142857142857 0.2142857142857143 0.576923076923077 0.4230769230769231 0.8968631178707225 0.1031368821292776 0.6931818181818182 0.3068181818181818 0.6590909090909091 0.3409090909090909 0.4538461538461539 0.5461538461538462 0.7201492537313433 0.2798507462686567 0.513157894736842 0.4868421052631579 0.6851851851851851 0.3148148148148148 0.1043956043956044 0.8956043956043956 0.9528000000000001 0.0472 0.8719512195121951 0.1280487804878049 0.8805907172995781 0.1194092827004219 0.8207395498392283 0.1792604501607717 0.8189655172413793 0.1810344827586207 0.65 0.35 0.778688524590164 0.2213114754098361 0.5472972972972974 0.4527027027027027 0.8158388003748829 0.1841611996251172 0.7475247524752475 0.2524752475247525 0.6506382978723404 0.3493617021276595 0.5183266932270917 0.4816733067729084 0.7028985507246377 0.2971014492753623 0.35625 0.64375 0.4333333333333333 0.5666666666666667 0.1382776934749621 0.861722306525038</probabilities>
		</cpt>
		<cpt id="att_15">
			<state id="S0" />
			<state id="S1" />
			<parents>att_5 att_10 att_11 att_12 att_14</parents>
			<probabilities>0.9982163242009132 0.001783675799086758 0.9983606557377049 0.001639344262295082 0.9545454545454546 0.04545454545454546 0.9166666666666666 0.08333333333333333 0.9896608767576509 0.01033912324234905 0.9752252252252253 0.02477477477477477 0.880952380952381 0.1190476190476191 0.9385964912280701 0.06140350877192982 0.9911764705882353 0.008823529411764706 0.9680851063829787 0.03191489361702127 0.9722222222222222 0.02777777777777778 0.9545454545454546 0.04545454545454546 0.9829545454545455 0.01704545454545454 0.9766666666666667 0.02333333333333333 0.8859649122807017 0.1140350877192982 0.5420353982300885 0.4579646017699115 0.9915637860082305 0.008436213991769546 0.9898255813953488 0.01017441860465116 0.9597701149425287 0.04022988505747126 0.8555555555555556 0.1444444444444445 0.9734607218683652 0.02653927813163482 0.9742907801418439 0.02570921985815603 0.8407534246575342 0.1592465753424658 0.5716145833333333 0.4283854166666666 0.9542682926829269 0.04573170731707317 0.9505494505494506 0.04945054945054946 0.9210526315789473 0.07894736842105263 0.7285714285714285 0.2714285714285714 0.9694092827004218 0.03059071729957806 0.8856332703213611 0.114366729678639 0.8144104803493449 0.185589519650655 0.3786016949152542 0.6213983050847457</probabilities>
		</cpt>
		<cpt id="att_2">
			<state id="S0" />
			<state id="S1" />
			<parents>att_3 att_5 att_12 att_15</parents>
			<probabilities>0.9772667714884696 0.0227332285115304 0.953125 0.046875 0.9283439490445861 0.07165605095541401 0.7171052631578947 0.2828947368421053 0.7917968750000001 0.208203125 0.4629629629629629 0.537037037037037 0.6087786259541984 0.3912213740458015 0.2934272300469484 0.7065727699530516 0.8808122424955855 0.1191877575044143 0.4375 0.5625 0.7944785276073619 0.205521472392638 0.7946428571428571 0.2053571428571428 0.6714504820333042 0.3285495179666959 0.458955223880597 0.5410447761194029 0.489972337482711 0.5100276625172891 0.2382044560943644 0.7617955439056356</probabilities>
		</cpt>
		<cpt id="att_7">
			<state id="S0" />
			<state id="S1" />
			<parents>att_2 att_4 att_5 att_12 att_14</parents>
			<probabilities>0.9614811133200796 0.03851888667992048 0.8489583333333333 0.1510416666666667 0.8566433566433567 0.1433566433566434 0.7756410256410257 0.2243589743589743 0.6826831588962893 0.3173168411037108 0.5258620689655172 0.4741379310344828 0.4298245614035088 0.5701754385964912 0.3390804597701149 0.6609195402298851 0.9050438596491228 0.0949561403508772 0.7970639032815198 0.2029360967184801 0.74609375 0.25390625 0.6560693641618497 0.3439306358381503 0.5522794846382557 0.4477205153617443 0.3997078870496592 0.6002921129503408 0.332618025751073 0.6673819742489271 0.161588683351469 0.8384113166485311 0.8333333333333333 0.1666666666666667 0.9583333333333333 0.04166666666666666 0.5909090909090909 0.4090909090909091 0.7121212121212122 0.2878787878787879 0.5066793893129771 0.4933206106870229 0.3653846153846154 0.6346153846153847 0.2434210526315789 0.756578947368421 0.09057971014492754 0.9094202898550725 0.7543103448275862 0.2456896551724138 0.5810810810810811 0.418918918918919 0.2894736842105263 0.7105263157894737 0.375 0.625 0.3778153153153153 0.6221846846846847 0.2146282973621103 0.7853717026378896 0.1245210727969349 0.8754789272030651 0.03958333333333334 0.9604166666666668</probabilities>
		</cpt>
		<cpt id="att_9">
			<state id="S0" />
			<state id="S1" />
			<parents>att_3 att_4 att_5 att_7 att_11</parents>
			<probabilities>0.7514537798275516 0.2485462201724484 0.5224719101123595 0.4775280898876405 0.09281437125748504 0.9071856287425151 0.02238805970149254 0.9776119402985074 0.2876984126984127 0.7123015873015872 0.1875 0.8125 0.08012820512820512 0.9198717948717948 0.01794871794871795 0.982051282051282 0.4976833976833977 0.5023166023166024 0.3148414985590778 0.6851585014409222 0.103960396039604 0.8960396039603961 0.03629032258064516 0.9637096774193548 0.2522727272727273 0.7477272727272727 0.1513157894736842 0.8486842105263157 0.06884057971014493 0.9311594202898551 0.01362683438155136 0.9863731656184487 0.4718992248062016 0.5281007751937984 0.2981927710843373 0.7018072289156627 0.09701492537313433 0.9029850746268656 0.01428571428571429 0.9857142857142857 0.3233009708737864 0.6766990291262136 0.1968325791855204 0.8031674208144797 0.1066433566433566 0.8933566433566433 0.02757352941176471 0.9724264705882353 0.3180851063829787 0.6819148936170213 0.20875 0.79125 0.1421052631578947 0.8578947368421053 0.0138121546961326 0.9861878453038674 0.2167874396135266 0.7832125603864734 0.0985985985985986 0.9014014014014013 0.02865853658536585 0.9713414634146341 0.007366729172247522 0.9926332708277525</probabilities>
		</cpt>
		<cpt id="att_8">
			<state id="S0" />
			<state id="S1" />
			<parents>att_5 att_7 att_9 att_12 att_15</parents>
			<probabilities>0.9999058203051423 9.417969485778867e-05 0.9642857142857142 0.03571428571428571 0.9957627118644068 0.00423728813559322 0.9761904761904762 0.02380952380952381 0.9805580290887504 0.01944197091124963 0.8809523809523809 0.119047619047619 0.9493927125506073 0.05060728744939271 0.9326923076923077 0.06730769230769232 0.9500000000000001 0.05 0.5 0.5 0.8333333333333333 0.1666666666666667 0.5 0.5 0.8173553719008264 0.1826446280991736 0.75 0.25 0.5180180180180181 0.481981981981982 0.2916666666666667 0.7083333333333334 0.9992000000000001 0.0008 0.9285714285714285 0.07142857142857142 0.9833333333333333 0.01666666666666667 0.9545454545454546 0.04545454545454546 0.9493918331885317 0.05060816681146828 0.8589743589743589 0.141025641025641 0.8284132841328413 0.1715867158671587 0.6989795918367346 0.3010204081632653 0.9734042553191489 0.02659574468085106 0.875 0.125 0.84375 0.15625 0.7857142857142857 0.2142857142857143 0.6015929203539823 0.3984070796460177 0.252212389380531 0.747787610619469 0.2401292175161522 0.7598707824838479 0.092 0.908</probabilities>
		</cpt>
		<cpt id="att_6">
			<state id="S0" />
			<state id="S1" />
			<parents>att_2 att_5 att_7 att_8 att_12</parents>
			<probabilities>0.9917914919113242 0.008208508088675855 0.9643799472295514 0.03562005277044854 0.8538461538461539 0.1461538461538462 0.8076923076923077 0.1923076923076923 0.8940329218106997 0.1059670781893004 0.708955223880597 0.291044776119403 0.7 0.3 0.373015873015873 0.626984126984127 0.9269019248395968 0.0730980751604033 0.8291139240506329 0.1708860759493671 0.6098901098901099 0.3901098901098902 0.6162790697674418 0.3837209302325582 0.7726151315789473 0.2273848684210526 0.591254752851711 0.408745247148289 0.3105263157894737 0.6894736842105263 0.1135458167330677 0.8864541832669323 0.9113712374581939 0.08862876254180602 0.9166666666666666 0.08333333333333333 0.875 0.125 0.125 0.875 0.7622950819672132 0.2377049180327869 0.5909090909090909 0.4090909090909091 0.325 0.675 0.1617647058823529 0.8382352941176471 0.8106287425149701 0.1893712574850299 0.6197916666666666 0.3802083333333333 0.515625 0.484375 0.1617647058823529 0.8382352941176471 0.4406919275123559 0.5593080724876441 0.21875 0.78125 0.09945255474452555 0.9005474452554745 0.02605042016806722 0.9739495798319328</probabilities>
		</cpt>
		<cpt id="att_1">
			<state id="S0" />
			<state id="S1" />
			<parents>att_2 att_6 att_8 att_9 att_12</parents>
			<probabilities>0.9751754385964911 0.02482456140350877 0.8537414965986394 0.1462585034013605 0.9331156872593336 0.06688431274066632 0.8373786407766991 0.162621359223301 0.75 0.25 0.5 0.5 0.8573298429319373 0.1426701570680628 0.7206896551724138 0.2793103448275862 0.782051282051282 0.217948717948718 0.5 0.5 0.7959381044487428 0.2040618955512573 0.65625 0.34375 0.25 0.75 0.75 0.25 0.7349056603773585 0.2650943396226415 0.4633977900552486 0.5366022099447514 0.8009868421052632 0.1990131578947368 0.293103448275862 0.7068965517241379 0.7591019417475727 0.2408980582524272 0.59765625 0.40234375 0.5 0.5 0.5 0.5 0.7312500000000001 0.26875 0.3070175438596491 0.6929824561403508 0.4622641509433962 0.5377358490566038 0.2368421052631579 0.763157894736842 0.5011013215859031 0.498898678414097 0.2981220657276996 0.7018779342723005 0.1666666666666667 0.8333333333333333 0.1666666666666667 0.8333333333333333 0.3932692307692308 0.6067307692307693 0.1545100222717149 0.845489977728285</probabilities>
		</cpt>
		<cpt id="att_0">
			<state id="S0" />
			<state id="S1" />
			<parents>att_1 att_2 att_6 att_12</parents>
			<probabilities>0.974738219895288 0.02526178010471204 0.963186077643909 0.03681392235609103 0.904332129963899 0.09566787003610108 0.8843612334801763 0.1156387665198238 0.8603020496224379 0.139697950377562 0.7696078431372549 0.2303921568627451 0.643640350877193 0.356359649122807 0.5231884057971015 0.4768115942028985 0.9151260504201681 0.08487394957983194 0.8796296296296295 0.1203703703703704 0.7784313725490196 0.2215686274509804 0.7660753880266076 0.2339246119733925 0.6803571428571429 0.3196428571428571 0.5900900900900901 0.4099099099099099 0.4851398601398602 0.5148601398601399 0.2633610451306413 0.7366389548693587</probabilities>
		</cpt>
	</nodes>
	<extensions>
		<genie version="1.0" app="SMILE_ACADEMIC 1.2.1@64858e074dd1" name="Unnamed" faultnameformat="nodestate">
			<node id="att_0">
				<name>att_0</name>
				<interior color="e5f6f7" />
				<outline color="0000bb" />
				<font color="000000" name="MS Sans Serif" size="8" />
				<position>-38 -18 38 18</position>
			</node>
			<node id="att_1">
				<name>att_1</name>
				<interior color="e5f6f7" />
				<outline color="0000bb" />
				<font color="000000" name="MS Sans Serif" size="8" />
				<position>-38 -18 38 18</position>
			</node>
			<node id="att_2">
				<name>att_2</name>
				<interior color="e5f6f7" />
				<outline color="0000bb" />
				<font color="000000" name="MS Sans Serif" size="8" />
				<position>-38 -18 38 18</position>
			</node>
			<node id="att_3">
				<name>att_3</name>
				<interior color="e5f6f7" />
				<outline color="0000bb" />
				<font color="000000" name="MS Sans Serif" size="8" />
				<position>-38 -18 38 18</position>
			</node>
			<node id="att_4">
				<name>att_4</name>
				<interior color="e5f6f7" />
				<outline color="0000bb" />
				<font color="000000" name="MS Sans Serif" size="8" />
				<position>-38 -18 38 18</position>
			</node>
			<node id="att_5">
				<name>att_5</name>
				<interior color="e5f6f7" />
				<outline color="0000bb" />
				<font color="000000" name="MS Sans Serif" size="8" />
				<position>-38 -18 38 18</position>
			</node>
			<node id="att_6">
				<name>att_6</name>
				<interior color="e5f6f7" />
				<outline color="0000bb" />
				<font color="000000" name="MS Sans Serif" size="8" />
				<position>-38 -18 38 18</position>
			</node>
			<node id="att_7">
				<name>att_7</name>
				<interior color="e5f6f7" />
				<outline color="0000bb" />
				<font color="000000" name="MS Sans Serif" size="8" />
				<position>-38 -18 38 18</position>
			</node>
			<node id="att_8">
				<name>att_8</name>
				<interior color="e5f6f7" />
				<outline color="0000bb" />
				<font color="000000" name="MS Sans Serif" size="8" />
				<position>-38 -18 38 18</position>
			</node>
			<node id="att_9">
				<name>att_9</name>
				<interior color="e5f6f7" />
				<outline color="0000bb" />
				<font color="000000" name="MS Sans Serif" size="8" />
				<position>-38 -18 38 18</position>
			</node>
			<node id="att_10">
				<name>att_10</name>
				<interior color="e5f6f7" />
				<outline color="0000bb" />
				<font color="000000" name="MS Sans Serif" size="8" />
				<position>-38 -18 38 18</position>
			</node>
			<node id="att_11">
				<name>att_11</name>
				<interior color="e5f6f7" />
				<outline color="0000bb" />
				<font color="000000" name="MS Sans Serif" size="8" />
				<position>-38 -18 38 18</position>
			</node>
			<node id="att_12">
				<name>att_12</name>
				<interior color="e5f6f7" />
				<outline color="0000bb" />
				<font color="000000" name="MS Sans Serif" size="8" />
				<position>-38 -18 38 18</position>
			</node>
			<node id="att_13">
				<name>att_13</name>
				<interior color="e5f6f7" />
				<outline color="0000bb" />
				<font color="000000" name="MS Sans Serif" size="8" />
				<position>-38 -18 38 18</position>
			</node>
			<node id="att_14">
				<name>att_14</name>
				<interior color="e5f6f7" />
				<outline color="0000bb" />
				<font color="000000" name="MS Sans Serif" size="8" />
				<position>-38 -18 38 18</position>
			</node>
			<node id="att_15">
				<name>att_15</name>
				<interior color="e5f6f7" />
				<outline color="0000bb" />
				<font color="000000" name="MS Sans Serif" size="8" />
				<position>-38 -18 38 18</position>
			</node>
		</genie>
	</extensions>
</smile>
