<?xml version="1.0" encoding="ISO-8859-1"?>
<!-- This file was created by ACADEMIC version of SMILE -->
<smile version="1.0" id="Unnamed" numsamples="10000" discsamples="10000">
	<nodes>
		<cpt id="att_15">
			<state id="S0" />
			<state id="S1" />
			<probabilities>0.8936756450533038 0.1063243549466962</probabilities>
		</cpt>
		<cpt id="att_11">
			<state id="S0" />
			<state id="S1" />
			<parents>att_15</parents>
			<probabilities>0.6237826312453179 0.3762173687546822 0.03559322033898305 0.964406779661017</probabilities>
		</cpt>
		<cpt id="att_6">
			<state id="S0" />
			<state id="S1" />
			<parents>att_11 att_15</parents>
			<probabilities>0.9138568129330255 0.0861431870669746 0.4797297297297298 0.5202702702702703 0.6418287639761066 0.3581712360238934 0.1302710843373494 0.8697289156626505</probabilities>
		</cpt>
		<cpt id="att_2">
			<state id="S0" />
			<state id="S1" />
			<parents>att_6 att_11 att_15</parents>
			<probabilities>0.9253512584655817 0.07464874153441828 0.7916666666666666 0.2083333333333333 0.8569553805774278 0.1430446194225722 0.7211538461538461 0.2788461538461539 0.5042872454448017 0.4957127545551983 0.4230769230769231 0.5769230769230769 0.4717828131680205 0.5282171868319795 0.2299480669359492 0.7700519330640507</probabilities>
		</cpt>
		<cpt id="att_0">
			<state id="S0" />
			<state id="S1" />
			<parents>att_2 att_6 att_15</parents>
			<probabilities>0.9711674250745332 0.02883257492546681 0.9143518518518517 0.08564814814814814 0.8770648030495554 0.1229351969504447 0.7602409638554217 0.2397590361445783 0.804559043348281 0.195440956651719 0.68125 0.31875 0.5091283863368669 0.4908716136631331 0.2428150331613854 0.7571849668386146</probabilities>
		</cpt>
		<cpt id="att_8">
			<state id="S0" />
			<state id="S1" />
			<parents>att_0 att_6 att_11 att_15</parents>
			<probabilities>0.979111581173982 0.02088841882601798 0.859375 0.140625 0.9171457135716071 0.0828542864283929 0.7669683257918553 0.2330316742081448 0.5868217054263566 0.4131782945736434 0.5 0.5 0.3432229856339787 0.6567770143660212 0.1768 0.8232 0.9350797266514806 0.06492027334851935 0.9 0.1 0.8036649214659687 0.1963350785340314 0.6625000000000001 0.3375 0.5657439446366782 0.4342560553633218 0.2894736842105263 0.7105263157894737 0.2469553450608931 0.753044654939107 0.06447249774571685 0.935527502254283</probabilities>
		</cpt>
		<cpt id="att_10">
			<state id="S0" />
			<state id="S1" />
			<parents>att_0 att_8 att_11 att_15</parents>
			<probabilities>0.9563615608136156 0.04363843918638439 0.8026315789473684 0.1973684210526316 0.6881962550367385 0.3118037449632614 0.2089285714285714 0.7910714285714285 0.8609913793103449 0.1390086206896552 0.5 0.5 0.4349240780911063 0.5650759219088937 0.1333922261484099 0.86660777385159 0.9747386759581882 0.02526132404181185 0.65 0.35 0.6860119047619048 0.3139880952380952 0.1785714285714285 0.8214285714285714 0.8279220779220779 0.1720779220779221 0.5357142857142857 0.4642857142857142 0.356060606060606 0.6439393939393939 0.1365366317792578 0.8634633682207422</probabilities>
		</cpt>
		<cpt id="att_14">
			<state id="S0" />
			<state id="S1" />
			<parents>att_6 att_8 att_10 att_11 att_15</parents>
			<probabilities>0.9408242528859641 0.05917574711403604 0.9 0.1 0.7921473762560477 0.2078526237439524 0.6891891891891893 0.3108108108108109 0.72875 0.27125 0.6875 0.3125 0.5105540897097626 0.4894459102902375 0.096875 0.9031250000000001 0.8219512195121951 0.1780487804878049 0.625 0.375 0.6045918367346939 0.3954081632653061 0.875 0.125 0.3863636363636364 0.6136363636363636 0.25 0.75 0.3074712643678161 0.6925287356321839 0.04629629629629629 0.9537037037037036 0.8846153846153847 0.1153846153846154 0.7307692307692308 0.2692307692307693 0.7310267857142857 0.2689732142857142 0.7625000000000001 0.2375 0.625 0.375 0.375 0.625 0.4789473684210526 0.5210526315789473 0.04545454545454546 0.9545454545454546 0.825077399380805 0.1749226006191951 0.625 0.375 0.5428802588996764 0.4571197411003237 0.2043269230769231 0.795673076923077 0.5357142857142857 0.4642857142857142 0.2692307692307693 0.7307692307692308 0.1871846619576186 0.8128153380423815 0.03234200743494424 0.9676579925650557</probabilities>
		</cpt>
		<cpt id="att_12">
			<state id="S0" />
			<state id="S1" />
			<parents>att_8 att_10 att_11 att_14 att_15</parents>
			<probabilities>0.9810775438979169 0.01892245610208311 0.859375 0.140625 0.9415156507413509 0.05848434925864909 0.5833333333333333 0.4166666666666666 0.9159201954397395 0.0840798045602606 0.5625 0.4375 0.8240058910162003 0.1759941089837997 0.4523809523809523 0.5476190476190476 0.909235668789809 0.09076433121019109 0.7857142857142857 0.2142857142857143 0.8401639344262295 0.1598360655737705 0.5 0.5 0.8319386331938633 0.1680613668061367 0.5681818181818182 0.4318181818181818 0.5595744680851065 0.4404255319148936 0.05871886120996441 0.9412811387900355 0.9413793103448276 0.05862068965517241 0.55 0.45 0.7903225806451614 0.2096774193548387 0.08333333333333333 0.9166666666666666 0.710352422907489 0.289647577092511 0.3490566037735849 0.6509433962264151 0.5736111111111112 0.4263888888888889 0.062874251497006 0.937125748502994 0.858695652173913 0.1413043478260869 0.875 0.125 0.6413043478260869 0.358695652173913 0.3181818181818182 0.6818181818181819 0.5125523012552301 0.4874476987447698 0.1413043478260869 0.858695652173913 0.2381209503239741 0.7618790496760259 0.03510716925351072 0.9648928307464892</probabilities>
		</cpt>
		<cpt id="att_1">
			<state id="S0" />
			<state id="S1" />
			<parents>att_0 att_2 att_6 att_12</parents>
			<probabilities>0.9535211267605634 0.04647887323943662 0.8346867749419953 0.1653132250580046 0.7910526315789473 0.2089473684210526 0.5374832663989291 0.4625167336010709 0.8071862348178138 0.1928137651821862 0.5451388888888888 0.4548611111111111 0.5140105078809107 0.4859894921190893 0.2892628205128205 0.7107371794871795 0.8514705882352941 0.1485294117647059 0.5851063829787234 0.4148936170212766 0.5845588235294118 0.4154411764705882 0.3322784810126582 0.6677215189873418 0.591324200913242 0.408675799086758 0.3405797101449275 0.6594202898550725 0.3555798687089715 0.6444201312910284 0.1170818505338078 0.8829181494661922</probabilities>
		</cpt>
		<cpt id="att_13">
			<state id="S0" />
			<state id="S1" />
			<parents>att_8 att_10 att_11 att_14</parents>
			<probabilities>0.8839673913043479 0.1160326086956522 0.1936274509803922 0.8063725490196079 0.7043010752688172 0.2956989247311828 0.1638054363376252 0.8361945636623748 0.5734375 0.4265625 0.2023809523809524 0.7976190476190476 0.4031165311653117 0.5968834688346883 0.0532994923857868 0.9467005076142132 0.7713963963963963 0.2286036036036036 0.1173469387755102 0.8826530612244897 0.5662055335968379 0.433794466403162 0.07319391634980989 0.9268060836501901 0.3979591836734693 0.6020408163265306 0.04464285714285714 0.9553571428571428 0.3714788732394366 0.6285211267605634 0.02436347673397717 0.9756365232660228</probabilities>
		</cpt>
		<cpt id="att_7">
			<state id="S0" />
			<state id="S1" />
			<parents>att_2 att_6 att_8 att_11 att_13</parents>
			<probabilities>0.9320938291350127 0.06790617086498733 0.8205902079141516 0.1794097920858484 0.839329268292683 0.1606707317073171 0.7026053215077606 0.2973946784922395 0.3911290322580645 0.6088709677419355 0.3897058823529412 0.6102941176470588 0.2368421052631579 0.763157894736842 0.2078189300411523 0.7921810699588478 0.5075000000000001 0.4925 0.3351063829787234 0.6648936170212766 0.3741258741258741 0.6258741258741258 0.3183333333333334 0.6816666666666668 0.145 0.855 0.06770833333333333 0.9322916666666666 0.08536585365853659 0.9146341463414636 0.03461128860489883 0.9653887113951013 0.8023255813953488 0.1976744186046512 0.5805369127516778 0.4194630872483222 0.7194656488549618 0.2805343511450382 0.5984126984126984 0.4015873015873016 0.2741935483870968 0.7258064516129032 0.25 0.75 0.25 0.75 0.125 0.875 0.3375 0.6625 0.2954545454545455 0.7045454545454546 0.25 0.75 0.2067137809187279 0.7932862190812721 0.02845528455284553 0.9715447154471546 0.005050505050505051 0.994949494949495 0.04233870967741935 0.9576612903225806 0.01808855291576674 0.9819114470842333</probabilities>
		</cpt>
		<cpt id="att_5">
			<state id="S0" />
			<state id="S1" />
			<parents>att_2 att_6 att_7 att_11 att_13</parents>
			<probabilities>0.8778046009656347 0.1221953990343652 0.6556000000000001 0.3444 0.7094353109363831 0.2905646890636169 0.5421092564491654 0.4578907435508346 0.4128205128205128 0.5871794871794872 0.2766990291262136 0.7233009708737864 0.275297619047619 0.7247023809523809 0.2091906721536351 0.7908093278463648 0.3663793103448276 0.6336206896551724 0.1447368421052632 0.8552631578947368 0.2578125 0.7421875 0.23046875 0.76953125 0.1983695652173913 0.8016304347826086 0.09539473684210525 0.9046052631578947 0.1212871287128713 0.8787128712871287 0.05715571557155715 0.9428442844284428 0.3927789934354486 0.6072210065645514 0.252808988764045 0.747191011235955 0.3170103092783505 0.6829896907216495 0.2601010101010101 0.7398989898989899 0.2142857142857143 0.7857142857142857 0.1357142857142857 0.8642857142857142 0.1055555555555556 0.8944444444444445 0.09067357512953368 0.9093264248704663 0.2042253521126761 0.795774647887324 0.125 0.875 0.146551724137931 0.853448275862069 0.09239130434782608 0.9076086956521738 0.04563492063492063 0.9543650793650793 0.01724137931034483 0.9827586206896551 0.03289473684210526 0.9671052631578947 0.01688693098384729 0.9831130690161528</probabilities>
		</cpt>
		<cpt id="att_3">
			<state id="S0" />
			<state id="S1" />
			<parents>att_2 att_5 att_7 att_11 att_13</parents>
			<probabilities>0.8937178663239074 0.1062821336760925 0.7387878787878788 0.2612121212121212 0.7487611496531219 0.2512388503468781 0.6740591397849462 0.3259408602150538 0.6780575539568345 0.3219424460431655 0.5650000000000001 0.435 0.4914529914529915 0.5085470085470086 0.4884259259259259 0.5115740740740741 0.3013918629550321 0.6986081370449679 0.2451403887688985 0.7548596112311016 0.276431718061674 0.723568281938326 0.2371794871794872 0.7628205128205129 0.3024439918533605 0.6975560081466394 0.164819944598338 0.8351800554016621 0.2054631828978623 0.7945368171021377 0.1653325123152709 0.8346674876847291 0.5231958762886598 0.4768041237113402 0.34 0.66 0.45 0.5499999999999999 0.475 0.525 0.4875 0.5125000000000001 0.2916666666666666 0.7083333333333333 0.3863636363636364 0.6136363636363636 0.375 0.625 0.2020958083832335 0.7979041916167665 0.1130952380952381 0.8869047619047619 0.1346153846153846 0.8653846153846154 0.1369565217391304 0.8630434782608696 0.1666666666666667 0.8333333333333334 0.1403940886699507 0.8596059113300493 0.1439732142857143 0.8560267857142857 0.1156135531135531 0.8843864468864469</probabilities>
		</cpt>
		<cpt id="att_4">
			<state id="S0" />
			<state id="S1" />
			<parents>att_3 att_5 att_11 att_13 att_14</parents>
			<probabilities>0.8722356599861782 0.1277643400138217 0.4464285714285714 0.5535714285714285 0.09758551307847084 0.9024144869215293 0.1077348066298343 0.8922651933701657 0.666875 0.333125 0.4811320754716981 0.5188679245283019 0.1306451612903226 0.8693548387096774 0.2623188405797102 0.7376811594202899 0.7162661737523105 0.2837338262476894 0.3928571428571428 0.6071428571428571 0.07142857142857142 0.9285714285714285 0.07051282051282051 0.9294871794871794 0.5620300751879699 0.4379699248120301 0.6142857142857142 0.3857142857142857 0.0748792270531401 0.9251207729468599 0.2509765625 0.7490234375 0.6633136094674557 0.3366863905325444 0.5 0.5 0.04545454545454545 0.9545454545454545 0.04639175257731959 0.9536082474226804 0.4776785714285714 0.5223214285714285 0.1896551724137931 0.8103448275862069 0.04497354497354497 0.955026455026455 0.1162280701754386 0.8837719298245613 0.498339973439575 0.501660026560425 0.3604651162790697 0.6395348837209303 0.04711538461538461 0.9528846153846154 0.02763157894736842 0.9723684210526315 0.3237240075614367 0.6762759924385634 0.2020547945205479 0.797945205479452 0.03249714937286203 0.967502850627138 0.02942111959287532 0.9705788804071247</probabilities>
		</cpt>
		<cpt id="att_9">
			<state id="S0" />
			<state id="S1" />
			<parents>att_4 att_5 att_7 att_8 att_11</parents>
			<probabilities>0.7281934306569343 0.2718065693430657 0.4813624678663239 0.518637532133676 0.02173913043478261 0.9782608695652174 0.04545454545454546 0.9545454545454546 0.1091370558375634 0.8908629441624365 0.02459016393442623 0.9754098360655739 0.01351351351351351 0.9864864864864865 0.01219512195121951 0.9878048780487805 0.3214285714285715 0.6785714285714286 0.203416149068323 0.7965838509316769 0.02 0.98 0.02631578947368421 0.9736842105263157 0.1365131578947368 0.8634868421052632 0.05357142857142857 0.9464285714285714 0.0108695652173913 0.9891304347826088 0.001845018450184502 0.9981549815498155 0.454727793696275 0.5452722063037249 0.2838983050847457 0.7161016949152542 0.025 0.9750000000000001 0.015625 0.984375 0.1371951219512195 0.8628048780487805 0.0270935960591133 0.9729064039408867 0.046875 0.953125 0.01470588235294118 0.9852941176470588 0.2333333333333333 0.7666666666666666 0.1189407540394973 0.8810592459605028 0.01162790697674419 0.9883720930232558 0.004424778761061947 0.995575221238938 0.052 0.9480000000000001 0.02456286427976686 0.9754371357202332 0.001501501501501501 0.9984984984984985 0.001495513459621136 0.9985044865403788</probabilities>
		</cpt>
	</nodes>
	<extensions>
		<genie version="1.0" app="SMILE_ACADEMIC 1.2.1@64858e074dd1" name="Unnamed" faultnameformat="nodestate">
			<node id="att_0">
				<name>att_0</name>
				<interior color="e5f6f7" />
				<outline color="0000bb" />
				<font color="000000" name="MS Sans Serif" size="8" />
				<position>-38 -18 38 18</position>
			</node>
			<node id="att_1">
				<name>att_1</name>
				<interior color="e5f6f7" />
				<outline color="0000bb" />
				<font color="000000" name="MS Sans Serif" size="8" />
				<position>-38 -18 38 18</position>
			</node>
			<node id="att_2">
				<name>att_2</name>
				<interior color="e5f6f7" />
				<outline color="0000bb" />
				<font color="000000" name="MS Sans Serif" size="8" />
				<position>-38 -18 38 18</position>
			</node>
			<node id="att_3">
				<name>att_3</name>
				<interior color="e5f6f7" />
				<outline color="0000bb" />
				<font color="000000" name="MS Sans Serif" size="8" />
				<position>-38 -18 38 18</position>
			</node>
			<node id="att_4">
				<name>att_4</name>
				<interior color="e5f6f7" />
				<outline color="0000bb" />
				<font color="000000" name="MS Sans Serif" size="8" />
				<position>-38 -18 38 18</position>
			</node>
			<node id="att_5">
				<name>att_5</name>
				<interior color="e5f6f7" />
				<outline color="0000bb" />
				<font color="000000" name="MS Sans Serif" size="8" />
				<position>-38 -18 38 18</position>
			</node>
			<node id="att_6">
				<name>att_6</name>
				<interior color="e5f6f7" />
				<outline color="0000bb" />
				<font color="000000" name="MS Sans Serif" size="8" />
				<position>-38 -18 38 18</position>
			</node>
			<node id="att_7">
				<name>att_7</name>
				<interior color="e5f6f7" />
				<outline color="0000bb" />
				<font color="000000" name="MS Sans Serif" size="8" />
				<position>-38 -18 38 18</position>
			</node>
			<node id="att_8">
				<name>att_8</name>
				<interior color="e5f6f7" />
				<outline color="0000bb" />
				<font color="000000" name="MS Sans Serif" size="8" />
				<position>-38 -18 38 18</position>
			</node>
			<node id="att_9">
				<name>att_9</name>
				<interior color="e5f6f7" />
				<outline color="0000bb" />
				<font color="000000" name="MS Sans Serif" size="8" />
				<position>-38 -18 38 18</position>
			</node>
			<node id="att_10">
				<name>att_10</name>
				<interior color="e5f6f7" />
				<outline color="0000bb" />
				<font color="000000" name="MS Sans Serif" size="8" />
				<position>-38 -18 38 18</position>
			</node>
			<node id="att_11">
				<name>att_11</name>
				<interior color="e5f6f7" />
				<outline color="0000bb" />
				<font color="000000" name="MS Sans Serif" size="8" />
				<position>-38 -18 38 18</position>
			</node>
			<node id="att_12">
				<name>att_12</name>
				<interior color="e5f6f7" />
				<outline color="0000bb" />
				<font color="000000" name="MS Sans Serif" size="8" />
				<position>-38 -18 38 18</position>
			</node>
			<node id="att_13">
				<name>att_13</name>
				<interior color="e5f6f7" />
				<outline color="0000bb" />
				<font color="000000" name="MS Sans Serif" size="8" />
				<position>-38 -18 38 18</position>
			</node>
			<node id="att_14">
				<name>att_14</name>
				<interior color="e5f6f7" />
				<outline color="0000bb" />
				<font color="000000" name="MS Sans Serif" size="8" />
				<position>-38 -18 38 18</position>
			</node>
			<node id="att_15">
				<name>att_15</name>
				<interior color="e5f6f7" />
				<outline color="0000bb" />
				<font color="000000" name="MS Sans Serif" size="8" />
				<position>-38 -18 38 18</position>
			</node>
		</genie>
	</extensions>
</smile>
