<?xml version="1.0" encoding="ISO-8859-1"?>
<!-- This file was created by ACADEMIC version of SMILE -->
<smile version="1.0" id="Unnamed" numsamples="10000" discsamples="10000">
	<nodes>
		<cpt id="att_9">
			<state id="S0" />
			<state id="S1" />
			<probabilities>0.3242261935417418 0.6757738064582582</probabilities>
		</cpt>
		<cpt id="att_2">
			<state id="S0" />
			<state id="S1" />
			<parents>att_9</parents>
			<probabilities>0.9355940279542567 0.06440597204574333 0.6902530102118579 0.3097469897881421</probabilities>
		</cpt>
		<cpt id="att_4">
			<state id="S0" />
			<state id="S1" />
			<parents>att_2 att_9</parents>
			<probabilities>0.7619249702936682 0.2380750297063317 0.3433981011260764 0.6566018988739236 0.624384236453202 0.375615763546798 0.1915129151291513 0.8084870848708486</probabilities>
		</cpt>
		<cpt id="att_13">
			<state id="S0" />
			<state id="S1" />
			<parents>att_2 att_4 att_9</parents>
			<probabilities>0.9785030073513032 0.02149699264869681 0.9201221472195434 0.07987785278045643 0.5235210263720599 0.4764789736279402 0.3248991257565568 0.6751008742434431 0.8681102362204725 0.1318897637795275 0.7721437740693196 0.2278562259306803 0.6372549019607844 0.3627450980392157 0.215850319440219 0.784149680559781</probabilities>
		</cpt>
		<cpt id="att_14">
			<state id="S0" />
			<state id="S1" />
			<parents>att_2 att_4 att_9 att_13</parents>
			<probabilities>0.9926018666059641 0.007398133394035966 0.5309278350515464 0.4690721649484536 0.971882640586797 0.02811735941320293 0.3634538152610441 0.6365461847389557 0.9517006802721087 0.04829931972789115 0.7137518684603886 0.2862481315396114 0.9154164511122607 0.08458354888773927 0.4259213147410358 0.5740786852589641 0.9932126696832581 0.006787330316742082 0.2205882352941176 0.7794117647058824 0.9443521594684385 0.05564784053156147 0.1825842696629214 0.8174157303370786 0.9642857142857142 0.03571428571428571 0.4910714285714285 0.5089285714285714 0.9035211267605634 0.09647887323943663 0.2011249030256012 0.7988750969743987</probabilities>
		</cpt>
		<cpt id="att_10">
			<state id="S0" />
			<state id="S1" />
			<parents>att_2 att_4 att_9 att_13 att_14</parents>
			<probabilities>0.9852098142627838 0.01479018573721624 0.6818181818181819 0.3181818181818182 0.8557692307692308 0.1442307692307692 0.4456521739130435 0.5543478260869565 0.9527488321954726 0.04725116780452749 0.7839506172839505 0.2160493827160494 0.7417582417582418 0.2582417582417583 0.2232704402515723 0.7767295597484277 0.915 0.08500000000000001 0.8472222222222222 0.1527777777777778 0.8357740585774058 0.1642259414225941 0.6953125 0.3046875 0.8867231638418079 0.1132768361581921 0.7469512195121951 0.2530487804878049 0.7238457042665107 0.2761542957334892 0.428664353859497 0.571335646140503 0.9704545454545455 0.02954545454545454 0.75 0.25 0.6875 0.3125 0.3888888888888888 0.611111111111111 0.914762741652021 0.08523725834797891 0.4558823529411765 0.5441176470588235 0.7121212121212122 0.2878787878787879 0.1472602739726027 0.8527397260273972 0.9315789473684211 0.06842105263157895 0.375 0.625 0.8035714285714285 0.1964285714285714 0.603448275862069 0.396551724137931 0.8590342679127726 0.1409657320872274 0.3985507246376812 0.6014492753623188 0.638728323699422 0.361271676300578 0.2070388349514563 0.7929611650485436</probabilities>
		</cpt>
		<cpt id="att_6">
			<state id="S0" />
			<state id="S1" />
			<parents>att_2 att_4 att_9 att_10 att_14</parents>
			<probabilities>0.9948168624740843 0.005183137525915688 0.9883720930232558 0.01162790697674419 0.9930555555555555 0.006944444444444444 0.9583333333333333 0.04166666666666666 0.9170650974623024 0.08293490253769768 0.7828282828282829 0.2171717171717172 0.8483870967741935 0.1516129032258065 0.5425531914893617 0.4574468085106383 0.9908653846153846 0.009134615384615385 0.9908536585365854 0.009146341463414635 0.9528985507246377 0.04710144927536232 0.9140625 0.0859375 0.8466880341880342 0.1533119658119658 0.7232223222322232 0.2767776777677768 0.7600297176820208 0.2399702823179792 0.4757174392935982 0.5242825607064018 0.8470319634703196 0.1529680365296804 0.7916666666666666 0.2083333333333333 0.8333333333333333 0.1666666666666667 0.8529411764705882 0.1470588235294118 0.5487132352941176 0.4512867647058824 0.2297297297297297 0.7702702702702703 0.3879310344827586 0.6120689655172413 0.1713286713286713 0.8286713286713286 0.8243243243243243 0.1756756756756757 0.8684210526315789 0.131578947368421 0.5416666666666666 0.4583333333333333 0.25 0.75 0.4546998867497169 0.5453001132502832 0.2588105726872247 0.7411894273127754 0.2715827338129497 0.7284172661870504 0.08388059701492537 0.9161194029850747</probabilities>
		</cpt>
		<cpt id="att_12">
			<state id="S0" />
			<state id="S1" />
			<parents>att_2 att_6 att_9 att_10 att_14</parents>
			<probabilities>0.985698261357263 0.01430173864273696 0.9195121951219513 0.08048780487804878 0.9137931034482759 0.08620689655172414 0.5967741935483871 0.4032258064516129 0.9545267912133032 0.04547320878669677 0.8734392735527809 0.1265607264472191 0.8499222395023328 0.1500777604976672 0.5387275242047026 0.4612724757952974 0.984375 0.015625 0.25 0.75 0.9285714285714285 0.07142857142857142 0.3571428571428571 0.6428571428571428 0.8620426829268293 0.1379573170731707 0.621580547112462 0.378419452887538 0.6891891891891893 0.3108108108108109 0.1924066924066924 0.8075933075933076 0.9693140794223827 0.03068592057761733 0.7884615384615385 0.2115384615384616 0.8928571428571428 0.1071428571428571 0.1944444444444444 0.8055555555555555 0.9321428571428572 0.06785714285714285 0.7976190476190476 0.2023809523809524 0.8112244897959183 0.1887755102040816 0.4333333333333333 0.5666666666666667 0.8773584905660377 0.1226415094339623 0.7000000000000001 0.3 0.3571428571428571 0.6428571428571428 0.2692307692307693 0.7307692307692308 0.7888583218707015 0.2111416781292985 0.4041095890410959 0.5958904109589042 0.4684873949579832 0.5315126050420168 0.08560193587416819 0.9143980641258319</probabilities>
		</cpt>
		<cpt id="att_1">
			<state id="S0" />
			<state id="S1" />
			<parents>att_2 att_6 att_9 att_12</parents>
			<probabilities>0.9751797930187687 0.02482020698123136 0.8537414965986394 0.1462585034013605 0.9286276361347183 0.07137236386528172 0.8156167979002624 0.1843832020997375 0.7625000000000001 0.2375 0.5833333333333333 0.4166666666666666 0.7652963671128107 0.2347036328871893 0.5011123470522804 0.4988876529477197 0.8009868421052632 0.1990131578947368 0.293103448275862 0.7068965517241379 0.7569213732004429 0.243078626799557 0.5081521739130435 0.4918478260869565 0.4454545454545454 0.5545454545454546 0.2142857142857143 0.7857142857142857 0.4434737923946557 0.5565262076053443 0.1695717131474103 0.8304282868525896</probabilities>
		</cpt>
		<cpt id="att_0">
			<state id="S0" />
			<state id="S1" />
			<parents>att_1 att_2 att_6 att_12</parents>
			<probabilities>0.974738219895288 0.02526178010471204 0.963186077643909 0.03681392235609103 0.904332129963899 0.09566787003610108 0.8843612334801763 0.1156387665198238 0.8603020496224379 0.139697950377562 0.7696078431372549 0.2303921568627451 0.643640350877193 0.356359649122807 0.5231884057971015 0.4768115942028985 0.9151260504201681 0.08487394957983194 0.8796296296296295 0.1203703703703704 0.7784313725490196 0.2215686274509804 0.7660753880266076 0.2339246119733925 0.6803571428571429 0.3196428571428571 0.5900900900900901 0.4099099099099099 0.4851398601398602 0.5148601398601399 0.2633610451306413 0.7366389548693587</probabilities>
		</cpt>
		<cpt id="att_8">
			<state id="S0" />
			<state id="S1" />
			<parents>att_1 att_6 att_9 att_12 att_14</parents>
			<probabilities>0.9999100395825836 8.996041741633681e-05 0.9939024390243903 0.006097560975609756 0.9945652173913043 0.005434782608695652 0.9883720930232558 0.01162790697674419 0.9530468605297278 0.04695313947027227 0.8882799325463743 0.1117200674536256 0.8818770226537217 0.1181229773462783 0.7899262899262899 0.2100737100737101 0.9897959183673468 0.01020408163265306 0.9285714285714285 0.07142857142857142 0.8333333333333333 0.1666666666666667 0.75 0.25 0.5698614318706697 0.4301385681293303 0.3964577656675749 0.603542234332425 0.3689024390243902 0.6310975609756098 0.1886942675159236 0.8113057324840764 0.9972375690607734 0.002762430939226519 0.9772727272727273 0.02272727272727273 0.9583333333333333 0.04166666666666666 0.9838709677419355 0.01612903225806452 0.9026465028355388 0.09735349716446125 0.8310344827586207 0.1689655172413793 0.7133333333333334 0.2866666666666667 0.6273885350318472 0.3726114649681529 0.9078947368421052 0.09210526315789473 0.8333333333333333 0.1666666666666667 0.8333333333333333 0.1666666666666667 0.8636363636363636 0.1363636363636364 0.5205078125 0.4794921875 0.2373188405797101 0.7626811594202899 0.2632575757575757 0.7367424242424243 0.07582298974635726 0.9241770102536427</probabilities>
		</cpt>
		<cpt id="att_7">
			<state id="S0" />
			<state id="S1" />
			<parents>att_2 att_4 att_6 att_8 att_9</parents>
			<probabilities>0.9936184505150022 0.006381549484997761 0.8576021180030258 0.1423978819969743 0.5 0.5 0.2851851851851852 0.7148148148148148 0.6458333333333333 0.3541666666666666 0.5 0.5 0.5 0.5 0.1217105263157895 0.8782894736842105 0.9627081824764663 0.03729181752353367 0.7161135039270332 0.2838864960729668 0.25 0.75 0.2767857142857142 0.7232142857142857 0.625 0.375 0.3186274509803921 0.6813725490196079 0.1666666666666667 0.8333333333333333 0.04038112522686025 0.9596188747731397 0.9143518518518517 0.08564814814814814 0.7523364485981309 0.2476635514018692 0.5 0.5 0.2575757575757576 0.7424242424242424 0.4868421052631579 0.513157894736842 0.2792553191489361 0.7207446808510638 0.25 0.75 0.04375 0.9562499999999999 0.8931623931623932 0.1068376068376068 0.5839936608557845 0.4160063391442155 0.5 0.5 0.1586538461538462 0.8413461538461539 0.4558823529411765 0.5441176470588235 0.2223382045929019 0.777661795407098 0.125 0.875 0.01758188824662813 0.9824181117533719</probabilities>
		</cpt>
		<cpt id="att_5">
			<state id="S0" />
			<state id="S1" />
			<parents>att_2 att_4 att_6 att_7 att_9</parents>
			<probabilities>0.9557232987832357 0.04427670121676431 0.7686470078057241 0.2313529921942758 0.5 0.5 0.4577167019027484 0.5422832980972516 0.46875 0.53125 0.4227272727272727 0.5772727272727273 0.2777777777777778 0.7222222222222222 0.2288888888888889 0.7711111111111111 0.7988721804511278 0.2011278195488722 0.55587734241908 0.4441226575809199 0.4622641509433962 0.5377358490566038 0.2254273504273504 0.7745726495726496 0.1153846153846154 0.8846153846153847 0.1859903381642512 0.8140096618357487 0.25 0.75 0.05871886120996442 0.9412811387900356 0.5681818181818182 0.4318181818181819 0.37 0.63 0.3421052631578947 0.6578947368421052 0.2355769230769231 0.764423076923077 0.2368421052631579 0.763157894736842 0.2301587301587301 0.7698412698412698 0.02380952380952381 0.9761904761904762 0.05342465753424658 0.9465753424657535 0.280952380952381 0.7190476190476192 0.2090909090909091 0.7909090909090909 0.2692307692307693 0.7307692307692308 0.08714285714285715 0.9128571428571428 0.15625 0.84375 0.08741258741258741 0.9125874125874126 0.02272727272727273 0.9772727272727273 0.0167910447761194 0.9832089552238806</probabilities>
		</cpt>
		<cpt id="att_3">
			<state id="S0" />
			<state id="S1" />
			<parents>att_0 att_4 att_5 att_9 att_10</parents>
			<probabilities>0.9375451263537906 0.06245487364620939 0.8443396226415094 0.1556603773584906 0.800661914460285 0.1993380855397149 0.6882716049382716 0.3117283950617284 0.3166666666666667 0.6833333333333333 0.6333333333333333 0.3666666666666666 0.3609601449275363 0.6390398550724637 0.4707602339181286 0.5292397660818713 0.7893374741200829 0.2106625258799172 0.7296296296296296 0.2703703703703704 0.6272672309552599 0.37273276904474 0.5390295358649788 0.4609704641350211 0.2572815533980582 0.7427184466019418 0.2792207792207793 0.7207792207792209 0.180758524704245 0.8192414752957551 0.121260929590428 0.8787390704095721 0.8041666666666667 0.1958333333333333 0.9444444444444444 0.05555555555555555 0.6032608695652174 0.3967391304347826 0.7250000000000001 0.275 0.1928571428571428 0.8071428571428572 0.625 0.375 0.2656903765690377 0.7343096234309623 0.4826388888888888 0.517361111111111 0.6875 0.3125 0.25 0.75 0.4214285714285714 0.5785714285714285 0.3857142857142857 0.6142857142857142 0.09999999999999999 0.9 0.1071428571428571 0.8928571428571428 0.0919452887537994 0.9080547112462006 0.08710667689946278 0.9128933231005372</probabilities>
		</cpt>
		<cpt id="att_11">
			<state id="S0" />
			<state id="S1" />
			<parents>att_4 att_9 att_10 att_12 att_14</parents>
			<probabilities>0.9288094180364282 0.07119058196357174 0.6395348837209303 0.3604651162790697 0.7327586206896551 0.2672413793103448 0.125 0.875 0.4652777777777777 0.5347222222222222 0.225 0.775 0.2777777777777778 0.7222222222222222 0.04545454545454546 0.9545454545454546 0.7845134173941158 0.2154865826058843 0.4702380952380952 0.5297619047619048 0.4147058823529411 0.5852941176470589 0.2788461538461539 0.7211538461538461 0.4325153374233129 0.5674846625766872 0.2555555555555556 0.7444444444444445 0.21 0.79 0.03138075313807531 0.9686192468619246 0.779319606087735 0.220680393912265 0.6852941176470588 0.3147058823529412 0.6617647058823529 0.3382352941176471 0.3461538461538461 0.6538461538461539 0.4259259259259259 0.5740740740740741 0.2333333333333333 0.7666666666666667 0.1666666666666667 0.8333333333333334 0.04545454545454546 0.9545454545454546 0.5852747909199522 0.4147252090800478 0.4090509666080843 0.5909490333919156 0.2113702623906706 0.7886297376093294 0.09953161592505855 0.9004683840749415 0.2457264957264957 0.7542735042735043 0.1577086280056577 0.8422913719943423 0.08634538152610441 0.9136546184738955 0.01525569402664375 0.9847443059733563</probabilities>
		</cpt>
		<cpt id="att_15">
			<state id="S0" />
			<state id="S1" />
			<parents>att_0 att_6 att_10 att_12 att_14</parents>
			<probabilities>0.9962913014160486 0.00370869858395145 0.9936647173489278 0.006335282651072124 0.9575471698113208 0.04245283018867925 0.9413793103448276 0.05862068965517241 0.9844139650872817 0.0155860349127182 0.9667338709677419 0.03326612903225806 0.9390243902439025 0.06097560975609757 0.6409952606635072 0.3590047393364929 0.9757109004739337 0.02428909952606635 0.9581818181818181 0.04181818181818182 0.8333333333333333 0.1666666666666667 0.6897590361445783 0.3102409638554217 0.9540540540540541 0.04594594594594595 0.8698630136986301 0.1301369863013699 0.861904761904762 0.1380952380952381 0.4906347554630593 0.5093652445369408 0.9902597402597403 0.00974025974025974 0.9716981132075472 0.02830188679245283 0.875 0.125 0.9642857142857142 0.03571428571428571 0.9318181818181819 0.06818181818181818 0.8125 0.1875 0.7727272727272727 0.2272727272727273 0.5175438596491228 0.4824561403508771 0.9477211796246648 0.05227882037533512 0.9444444444444444 0.05555555555555555 0.759090909090909 0.2409090909090909 0.3547486033519553 0.6452513966480448 0.9126984126984127 0.0873015873015873 0.7371794871794871 0.2628205128205128 0.6845238095238095 0.3154761904761905 0.2353187919463087 0.7646812080536912</probabilities>
		</cpt>
	</nodes>
	<extensions>
		<genie version="1.0" app="SMILE_ACADEMIC 1.2.1@64858e074dd1" name="Unnamed" faultnameformat="nodestate">
			<node id="att_0">
				<name>att_0</name>
				<interior color="e5f6f7" />
				<outline color="0000bb" />
				<font color="000000" name="MS Sans Serif" size="8" />
				<position>-38 -18 38 18</position>
			</node>
			<node id="att_1">
				<name>att_1</name>
				<interior color="e5f6f7" />
				<outline color="0000bb" />
				<font color="000000" name="MS Sans Serif" size="8" />
				<position>-38 -18 38 18</position>
			</node>
			<node id="att_2">
				<name>att_2</name>
				<interior color="e5f6f7" />
				<outline color="0000bb" />
				<font color="000000" name="MS Sans Serif" size="8" />
				<position>-38 -18 38 18</position>
			</node>
			<node id="att_3">
				<name>att_3</name>
				<interior color="e5f6f7" />
				<outline color="0000bb" />
				<font color="000000" name="MS Sans Serif" size="8" />
				<position>-38 -18 38 18</position>
			</node>
			<node id="att_4">
				<name>att_4</name>
				<interior color="e5f6f7" />
				<outline color="0000bb" />
				<font color="000000" name="MS Sans Serif" size="8" />
				<position>-38 -18 38 18</position>
			</node>
			<node id="att_5">
				<name>att_5</name>
				<interior color="e5f6f7" />
				<outline color="0000bb" />
				<font color="000000" name="MS Sans Serif" size="8" />
				<position>-38 -18 38 18</position>
			</node>
			<node id="att_6">
				<name>att_6</name>
				<interior color="e5f6f7" />
				<outline color="0000bb" />
				<font color="000000" name="MS Sans Serif" size="8" />
				<position>-38 -18 38 18</position>
			</node>
			<node id="att_7">
				<name>att_7</name>
				<interior color="e5f6f7" />
				<outline color="0000bb" />
				<font color="000000" name="MS Sans Serif" size="8" />
				<position>-38 -18 38 18</position>
			</node>
			<node id="att_8">
				<name>att_8</name>
				<interior color="e5f6f7" />
				<outline color="0000bb" />
				<font color="000000" name="MS Sans Serif" size="8" />
				<position>-38 -18 38 18</position>
			</node>
			<node id="att_9">
				<name>att_9</name>
				<interior color="e5f6f7" />
				<outline color="0000bb" />
				<font color="000000" name="MS Sans Serif" size="8" />
				<position>-38 -18 38 18</position>
			</node>
			<node id="att_10">
				<name>att_10</name>
				<interior color="e5f6f7" />
				<outline color="0000bb" />
				<font color="000000" name="MS Sans Serif" size="8" />
				<position>-38 -18 38 18</position>
			</node>
			<node id="att_11">
				<name>att_11</name>
				<interior color="e5f6f7" />
				<outline color="0000bb" />
				<font color="000000" name="MS Sans Serif" size="8" />
				<position>-38 -18 38 18</position>
			</node>
			<node id="att_12">
				<name>att_12</name>
				<interior color="e5f6f7" />
				<outline color="0000bb" />
				<font color="000000" name="MS Sans Serif" size="8" />
				<position>-38 -18 38 18</position>
			</node>
			<node id="att_13">
				<name>att_13</name>
				<interior color="e5f6f7" />
				<outline color="0000bb" />
				<font color="000000" name="MS Sans Serif" size="8" />
				<position>-38 -18 38 18</position>
			</node>
			<node id="att_14">
				<name>att_14</name>
				<interior color="e5f6f7" />
				<outline color="0000bb" />
				<font color="000000" name="MS Sans Serif" size="8" />
				<position>-38 -18 38 18</position>
			</node>
			<node id="att_15">
				<name>att_15</name>
				<interior color="e5f6f7" />
				<outline color="0000bb" />
				<font color="000000" name="MS Sans Serif" size="8" />
				<position>-38 -18 38 18</position>
			</node>
		</genie>
	</extensions>
</smile>
